Language model created by QuickLM on Thu Dec  3 16:08:01 EST 2015
Copyright (c) 1996-2010 Carnegie Mellon University and Alexander I. Rudnicky

The model is in standard ARPA format, designed by Doug Paul while he was at MITRE.

The code that was used to produce this language model is available in Open Source.
Please visit http://www.speech.cs.cmu.edu/tools/ for more information

The (fixed) discount mass is 0.5. The backoffs are computed using the ratio method.
This model based on a corpus of 5 sentences and 10 words

\data\
ngram 1=10
ngram 2=13
ngram 3=9

\1-grams:
-0.8808 </s> -0.3010
-0.8808 <s> -0.2398
-1.5798 CRAWLED -0.2894
-1.5798 CRAWLING -0.2398
-1.2788 DELETE -0.2775
-1.5798 DOMAINS -0.2398
-1.5798 FILES -0.2398
-1.5798 INDEX -0.2398
-1.5798 NEW -0.2894
-1.5798 SEARCH -0.2398

\2-grams:
-1.0000 <s> CRAWLED 0.0000
-0.6990 <s> DELETE 0.0000
-1.0000 <s> NEW 0.0000
-1.0000 <s> SEARCH 0.0000
-0.3010 CRAWLED DOMAINS 0.0000
-0.3010 CRAWLING </s> -0.3010
-0.6021 DELETE FILES 0.0000
-0.6021 DELETE INDEX 0.0000
-0.3010 DOMAINS </s> -0.3010
-0.3010 FILES </s> -0.3010
-0.3010 INDEX </s> -0.3010
-0.3010 NEW CRAWLING 0.0000
-0.3010 SEARCH </s> -0.3010

\3-grams:
-0.3010 <s> CRAWLED DOMAINS
-0.6021 <s> DELETE FILES
-0.6021 <s> DELETE INDEX
-0.3010 <s> NEW CRAWLING
-0.3010 <s> SEARCH </s>
-0.3010 CRAWLED DOMAINS </s>
-0.3010 DELETE FILES </s>
-0.3010 DELETE INDEX </s>
-0.3010 NEW CRAWLING </s>

\end\
